{
  "layer": [
    5,
    8,
    2
  ],
  "weights": [
    {
      "rows": 8,
      "cols": 5,
      "data": [
        [
          -13.688455,
          21.246614,
          1.1837674,
          -2.2696168,
          -13.099683
        ],
        [
          -0.5198139,
          -23.938223,
          8.928609,
          33.250645,
          0.3952366
        ],
        [
          5.3704767,
          -5.7740145,
          18.774755,
          -9.294715,
          -12.134616
        ],
        [
          -49.16802,
          -7.6743956,
          -0.09212518,
          8.215871,
          32.81532
        ],
        [
          -19.360767,
          -0.35185635,
          -3.5672536,
          -22.14657,
          -30.19263
        ],
        [
          -9.1613865,
          1.7219343,
          16.056238,
          -3.8351402,
          16.215668
        ],
        [
          14.409713,
          10.011991,
          8.841168,
          -12.85055,
          12.78254
        ],
        [
          -5.403712,
          15.305534,
          -1.0314281,
          -3.8946204,
          -16.809334
        ]
      ],
      "shape": [
        8,
        5
      ]
    },
    {
      "rows": 2,
      "cols": 8,
      "data": [
        [
          -8.105265,
          21.368855,
          -20.097546,
          -22.833132,
          -2.3102977,
          -7.8385057,
          -2.5993674,
          18.111609
        ],
        [
          26.223133,
          -50.866917,
          -25.618122,
          -3.7570353,
          32.538963,
          -4.4404507,
          7.9868813,
          20.130344
        ]
      ],
      "shape": [
        2,
        8
      ]
    }
  ],
  "biases": [
    {
      "rows": 8,
      "cols": 1,
      "data": [
        [
          -13.376555
        ],
        [
          -11.137812
        ],
        [
          3.8933525
        ],
        [
          4.5128613
        ],
        [
          20.55486
        ],
        [
          21.292469
        ],
        [
          18.947643
        ],
        [
          23.340897
        ]
      ],
      "shape": [
        8,
        1
      ]
    },
    {
      "rows": 2,
      "cols": 1,
      "data": [
        [
          -9.389072
        ],
        [
          12.537636
        ]
      ],
      "shape": [
        2,
        1
      ]
    }
  ]
}
