{
  "layer": [
    5,
    8,
    2
  ],
  "weights": [
    {
      "rows": 8,
      "cols": 5,
      "data": [
        [
          14.968204,
          -10.956373,
          -5.9406996,
          -10.337789,
          1.9725728
        ],
        [
          -3.4376204,
          12.631625,
          -11.308443,
          5.1073427,
          -0.2651899
        ],
        [
          -14.884258,
          1.5516388,
          9.1779175,
          14.654416,
          15.824466
        ],
        [
          -17.209412,
          -6.4641557,
          1.452148,
          8.131456,
          19.705107
        ],
        [
          -8.62938,
          -8.73209,
          -2.396019,
          -4.044491,
          -3.0918822
        ],
        [
          -1.1080339,
          8.532481,
          10.995608,
          7.7781243,
          6.784744
        ],
        [
          -2.0802183,
          -3.6566634,
          -4.8518286,
          -8.192936,
          -20.375998
        ],
        [
          -3.4841309,
          -21.623932,
          -3.5301507,
          17.09844,
          2.5487452
        ]
      ],
      "shape": [
        8,
        5
      ]
    },
    {
      "rows": 2,
      "cols": 8,
      "data": [
        [
          -10.110491,
          8.496546,
          -4.5853047,
          16.853271,
          -1.8606021,
          -9.009443,
          -10.144589,
          1.1102278
        ],
        [
          -17.473854,
          8.186196,
          -8.819532,
          1.2803822,
          14.04557,
          15.5350895,
          6.6675596,
          -18.730478
        ]
      ],
      "shape": [
        2,
        8
      ]
    }
  ],
  "biases": [
    {
      "rows": 8,
      "cols": 1,
      "data": [
        [
          -1.7013094
        ],
        [
          -4.938158
        ],
        [
          -9.795048
        ],
        [
          12.652268
        ],
        [
          -7.411205
        ],
        [
          7.2771406
        ],
        [
          6.2317686
        ],
        [
          -0.3929922
        ]
      ],
      "shape": [
        8,
        1
      ]
    },
    {
      "rows": 2,
      "cols": 1,
      "data": [
        [
          -11.871513
        ],
        [
          -3.9239476
        ]
      ],
      "shape": [
        2,
        1
      ]
    }
  ]
}
