{
  "layer": [
    5,
    8,
    2
  ],
  "weights": [
    {
      "rows": 8,
      "cols": 5,
      "data": [
        [
          -3.3505666,
          14.810677,
          -5.18976,
          -5.6208496,
          -13.110281
        ],
        [
          -0.015837789,
          -39.78929,
          1.6511621,
          41.303154,
          2.2232525
        ],
        [
          1.8176658,
          6.377434,
          24.043306,
          -8.379224,
          -24.209774
        ],
        [
          -51.23857,
          -3.3598018,
          -2.5404036,
          3.6494389,
          27.692854
        ],
        [
          -14.466156,
          -1.7240219,
          -11.333114,
          -0.524411,
          -26.741177
        ],
        [
          12.5286665,
          -5.2237444,
          13.940429,
          -18.944368,
          21.065649
        ],
        [
          24.511248,
          21.756525,
          -0.1086995,
          -7.196664,
          -0.39664543
        ],
        [
          -1.3121908,
          15.001558,
          -6.0942764,
          -0.65743786,
          -26.532526
        ]
      ],
      "shape": [
        8,
        5
      ]
    },
    {
      "rows": 2,
      "cols": 8,
      "data": [
        [
          -11.864567,
          23.484818,
          -19.000109,
          -6.422915,
          9.333185,
          -21.789553,
          -9.175739,
          7.68824
        ],
        [
          29.566906,
          -58.947216,
          -26.014591,
          3.3912988,
          15.657061,
          -0.9368236,
          7.3612523,
          7.305973
        ]
      ],
      "shape": [
        2,
        8
      ]
    }
  ],
  "biases": [
    {
      "rows": 8,
      "cols": 1,
      "data": [
        [
          -6.104845
        ],
        [
          -7.9625125
        ],
        [
          1.9976652
        ],
        [
          -1.2334585
        ],
        [
          22.532932
        ],
        [
          11.13199
        ],
        [
          32.245
        ],
        [
          3.5896626
        ]
      ],
      "shape": [
        8,
        1
      ]
    },
    {
      "rows": 2,
      "cols": 1,
      "data": [
        [
          -8.354776
        ],
        [
          5.788537
        ]
      ],
      "shape": [
        2,
        1
      ]
    }
  ]
}
