{
  "layer": [
    5,
    8,
    2
  ],
  "weights": [
    {
      "rows": 8,
      "cols": 5,
      "data": [
        [
          4.352622,
          -15.569184,
          7.4124594,
          7.4583354,
          -3.9774728
        ],
        [
          -14.184349,
          6.610866,
          9.743947,
          6.7867575,
          -5.843278
        ],
        [
          6.5826545,
          -0.024239123,
          -0.5504739,
          -0.23550212,
          -14.924267
        ],
        [
          -11.006885,
          -5.1366105,
          19.562027,
          -2.4563956,
          -7.3898473
        ],
        [
          -2.9991999,
          8.4047165,
          -18.046818,
          -5.9745126,
          -8.181473
        ],
        [
          1.5724282,
          4.7384205,
          -8.813956,
          9.158562,
          -15.548975
        ],
        [
          -11.33857,
          -0.3205719,
          0.57811785,
          -8.492006,
          9.365179
        ],
        [
          -3.1648152,
          -4.186763,
          4.549191,
          -4.550329,
          -8.564491
        ]
      ],
      "shape": [
        8,
        5
      ]
    },
    {
      "rows": 2,
      "cols": 8,
      "data": [
        [
          -2.513659,
          1.2839661,
          -5.6579237,
          -2.934936,
          13.983632,
          -7.4941497,
          12.94264,
          -12.195399
        ],
        [
          -2.3173974,
          -3.988171,
          13.747283,
          -0.8883268,
          5.6009398,
          -6.0485497,
          -6.8283453,
          0.1926279
        ]
      ],
      "shape": [
        2,
        8
      ]
    }
  ],
  "biases": [
    {
      "rows": 8,
      "cols": 1,
      "data": [
        [
          9.607856
        ],
        [
          2.7879672
        ],
        [
          -7.5142717
        ],
        [
          0.33298397
        ],
        [
          -6.1988363
        ],
        [
          -22.807928
        ],
        [
          2.0155146
        ],
        [
          11.94919
        ]
      ],
      "shape": [
        8,
        1
      ]
    },
    {
      "rows": 2,
      "cols": 1,
      "data": [
        [
          -1.0266443
        ],
        [
          -1.9602334
        ]
      ],
      "shape": [
        2,
        1
      ]
    }
  ]
}
