{
  "layer": [
    5,
    8,
    2
  ],
  "weights": [
    {
      "rows": 8,
      "cols": 5,
      "data": [
        [
          -15.679077,
          16.100767,
          9.362915,
          30.672703,
          -21.099848
        ],
        [
          -6.712247,
          58.05735,
          23.961576,
          -38.63501,
          -35.209995
        ],
        [
          -16.67492,
          1.9514086,
          -0.6373526,
          21.039139,
          15.543583
        ],
        [
          11.09093,
          8.708017,
          4.9022264,
          -14.171083,
          -25.482307
        ],
        [
          24.135063,
          6.0482864,
          8.987655,
          1.6757793,
          27.556416
        ],
        [
          -2.0970569,
          -27.939028,
          19.658474,
          46.39474,
          0.27730703
        ],
        [
          -8.229668,
          -17.37048,
          -29.574821,
          15.590557,
          -9.547861
        ],
        [
          3.6671617,
          9.39683,
          -27.004204,
          -14.67651,
          1.8022305
        ]
      ],
      "shape": [
        8,
        5
      ]
    },
    {
      "rows": 2,
      "cols": 8,
      "data": [
        [
          -33.50559,
          0.14643288,
          22.783604,
          17.375149,
          -3.3965728,
          31.311897,
          16.46354,
          -11.714013
        ],
        [
          -23.60547,
          29.393936,
          9.739597,
          14.163049,
          10.363385,
          -27.773987,
          4.998001,
          -16.246176
        ]
      ],
      "shape": [
        2,
        8
      ]
    }
  ],
  "biases": [
    {
      "rows": 8,
      "cols": 1,
      "data": [
        [
          18.95489
        ],
        [
          -7.2202606
        ],
        [
          -8.030447
        ],
        [
          15.585373
        ],
        [
          12.459157
        ],
        [
          -21.55293
        ],
        [
          0.2500715
        ],
        [
          4.061942
        ]
      ],
      "shape": [
        8,
        1
      ]
    },
    {
      "rows": 2,
      "cols": 1,
      "data": [
        [
          -5.6241674
        ],
        [
          17.75984
        ]
      ],
      "shape": [
        2,
        1
      ]
    }
  ]
}
