{
  "layer": [
    5,
    8,
    2
  ],
  "weights": [
    {
      "rows": 8,
      "cols": 5,
      "data": [
        [
          13.498573,
          -8.025137,
          -8.945542,
          -10.738939,
          2.2088914
        ],
        [
          -4.339129,
          15.500265,
          -3.3319454,
          2.1407945,
          2.1251998
        ],
        [
          -17.22288,
          -0.45740914,
          13.566089,
          11.064417,
          10.551206
        ],
        [
          -17.869835,
          -2.8865383,
          2.6923838,
          8.642263,
          19.721142
        ],
        [
          -1.9346654,
          -10.64234,
          -0.6389961,
          2.4092813,
          -2.185555
        ],
        [
          -4.5609746,
          2.317472,
          2.2289555,
          3.8778255,
          9.862274
        ],
        [
          0.9178102,
          2.112019,
          -4.5695724,
          -4.3287992,
          -20.021927
        ],
        [
          -2.2285986,
          -15.263049,
          -7.145236,
          11.313783,
          3.8237739
        ]
      ],
      "shape": [
        8,
        5
      ]
    },
    {
      "rows": 2,
      "cols": 8,
      "data": [
        [
          -11.009422,
          18.609453,
          -5.3973417,
          14.881524,
          1.1263492,
          -4.310369,
          -7.34774,
          -0.07309824
        ],
        [
          -10.054311,
          1.311214,
          -8.161121,
          0.8713838,
          16.42426,
          10.8060875,
          3.3912706,
          -13.725381
        ]
      ],
      "shape": [
        2,
        8
      ]
    }
  ],
  "biases": [
    {
      "rows": 8,
      "cols": 1,
      "data": [
        [
          2.6455872
        ],
        [
          -7.732338
        ],
        [
          -10.811111
        ],
        [
          12.226894
        ],
        [
          -13.53984
        ],
        [
          1.1943734
        ],
        [
          11.203963
        ],
        [
          -1.4671419
        ]
      ],
      "shape": [
        8,
        1
      ]
    },
    {
      "rows": 2,
      "cols": 1,
      "data": [
        [
          -7.90646
        ],
        [
          -0.34543514
        ]
      ],
      "shape": [
        2,
        1
      ]
    }
  ]
}
