{
  "layer": [
    5,
    8,
    2
  ],
  "weights": [
    {
      "rows": 8,
      "cols": 5,
      "data": [
        [
          -6.3371367,
          10.171511,
          3.6720471,
          1.3176719,
          -3.0255344
        ],
        [
          -0.0766876,
          12.056102,
          -9.066148,
          -24.861208,
          -0.2389254
        ],
        [
          5.0945725,
          6.7766204,
          -5.6789684,
          15.70286,
          -0.58060443
        ],
        [
          -4.169609,
          -11.904482,
          0.13173783,
          -21.229769,
          -3.9005156
        ],
        [
          -1.3006203,
          -4.708461,
          -3.5368946,
          -3.8700988,
          11.618679
        ],
        [
          -23.852486,
          -9.079278,
          9.386609,
          21.712425,
          13.460091
        ],
        [
          -6.572035,
          0.6169293,
          -4.2485576,
          14.436795,
          10.091804
        ],
        [
          5.131586,
          4.79904,
          -3.9769266,
          4.3087296,
          10.603589
        ]
      ],
      "shape": [
        8,
        5
      ]
    },
    {
      "rows": 2,
      "cols": 8,
      "data": [
        [
          3.3614602,
          -16.488695,
          -4.1339207,
          10.487446,
          2.347314,
          7.979587,
          18.643736,
          2.2820377
        ],
        [
          5.6516967,
          16.059826,
          -1.2227026,
          8.2468815,
          1.5003562,
          -8.568967,
          -9.581459,
          5.7985053
        ]
      ],
      "shape": [
        2,
        8
      ]
    }
  ],
  "biases": [
    {
      "rows": 8,
      "cols": 1,
      "data": [
        [
          9.89683
        ],
        [
          12.880931
        ],
        [
          -6.8642926
        ],
        [
          12.252853
        ],
        [
          -6.618578
        ],
        [
          -23.862846
        ],
        [
          -6.27614
        ],
        [
          -8.852005
        ]
      ],
      "shape": [
        8,
        1
      ]
    },
    {
      "rows": 2,
      "cols": 1,
      "data": [
        [
          1.346549
        ],
        [
          5.9289784
        ]
      ],
      "shape": [
        2,
        1
      ]
    }
  ]
}
