{
  "layer": [
    5,
    8,
    2
  ],
  "weights": [
    {
      "rows": 8,
      "cols": 5,
      "data": [
        [
          -0.11406137,
          0.78327423,
          -0.11593338,
          0.84607524,
          -0.8412103
        ],
        [
          0.5134958,
          -0.27164683,
          0.56950414,
          -0.84405637,
          -0.19892791
        ],
        [
          0.07035808,
          -0.8430926,
          0.48114005,
          -0.65429443,
          0.0998742
        ],
        [
          0.036530428,
          -0.97783583,
          0.465603,
          0.17597066,
          0.5820948
        ],
        [
          0.9034223,
          -0.91444,
          0.4481253,
          0.805733,
          -0.46715146
        ],
        [
          -0.88086283,
          0.728946,
          -0.4648671,
          0.06595882,
          0.54674435
        ],
        [
          0.96570945,
          0.44018608,
          0.7993191,
          0.3840326,
          0.37865067
        ],
        [
          0.9482645,
          0.7576498,
          -0.30993277,
          0.61713684,
          0.82357657
        ]
      ],
      "shape": [
        8,
        5
      ]
    },
    {
      "rows": 2,
      "cols": 8,
      "data": [
        [
          0.19033794,
          -0.25485,
          -0.68052334,
          0.59678787,
          0.49256548,
          -0.6232876,
          -0.30363238,
          0.5955978
        ],
        [
          -0.004121572,
          0.51959425,
          0.6413856,
          -0.4409054,
          0.92578644,
          0.28129742,
          -0.8548479,
          0.76404583
        ]
      ],
      "shape": [
        2,
        8
      ]
    }
  ],
  "biases": [
    {
      "rows": 8,
      "cols": 1,
      "data": [
        [
          0.053240452
        ],
        [
          0.7823353
        ],
        [
          0.13056532
        ],
        [
          -0.015116638
        ],
        [
          0.47330213
        ],
        [
          -0.09428003
        ],
        [
          -0.6409735
        ],
        [
          0.99718106
        ]
      ],
      "shape": [
        8,
        1
      ]
    },
    {
      "rows": 2,
      "cols": 1,
      "data": [
        [
          0.74722683
        ],
        [
          -0.018852517
        ]
      ],
      "shape": [
        2,
        1
      ]
    }
  ]
}
