{
  "layer": [
    5,
    8,
    2
  ],
  "weights": [
    {
      "rows": 8,
      "cols": 5,
      "data": [
        [
          4.503957,
          -36.60573,
          1.1697872,
          38.5762,
          2.0283184
        ],
        [
          -8.423221,
          -13.38978,
          5.7797437,
          0.28573847,
          -5.3786006
        ],
        [
          10.672464,
          7.9367876,
          3.7498312,
          2.707193,
          6.563943
        ],
        [
          3.466501,
          12.755132,
          9.676365,
          -27.02385,
          -10.791018
        ],
        [
          -0.36102173,
          -5.5809965,
          3.5107386,
          5.604001,
          7.3757257
        ],
        [
          4.091563,
          21.434172,
          -8.580918,
          6.0744014,
          15.976324
        ],
        [
          1.0817266,
          3.4826941,
          -3.449747,
          -2.5925992,
          2.8684373
        ],
        [
          -23.741493,
          3.820094,
          -5.001584,
          -5.414561,
          -5.7762256
        ]
      ],
      "shape": [
        8,
        5
      ]
    },
    {
      "rows": 2,
      "cols": 8,
      "data": [
        [
          22.670511,
          -9.964831,
          10.930461,
          -17.586937,
          -6.8772926,
          18.491411,
          -11.98572,
          0.66665745
        ],
        [
          -11.784225,
          24.431528,
          6.536264,
          16.038696,
          -3.4970837,
          2.5046597,
          15.543543,
          -9.542337
        ]
      ],
      "shape": [
        2,
        8
      ]
    }
  ],
  "biases": [
    {
      "rows": 8,
      "cols": 1,
      "data": [
        [
          -11.732395
        ],
        [
          -14.055897
        ],
        [
          2.0815065
        ],
        [
          0.7525315
        ],
        [
          4.165411
        ],
        [
          8.51472
        ],
        [
          4.47652
        ],
        [
          -15.730778
        ]
      ],
      "shape": [
        8,
        1
      ]
    },
    {
      "rows": 2,
      "cols": 1,
      "data": [
        [
          1.2905166
        ],
        [
          -6.9669237
        ]
      ],
      "shape": [
        2,
        1
      ]
    }
  ]
}
