{
  "layer": [
    5,
    8,
    2
  ],
  "weights": [
    {
      "rows": 8,
      "cols": 5,
      "data": [
        [
          -6.778214,
          6.2787647,
          -3.9010463,
          -7.720827,
          -6.119626
        ],
        [
          -0.23899412,
          -15.404087,
          12.46974,
          27.382095,
          1.3368888
        ],
        [
          -10.5308895,
          -14.995773,
          14.930517,
          5.0674615,
          5.941515
        ],
        [
          -22.731073,
          11.137686,
          -26.382328,
          0.9325602,
          10.359716
        ],
        [
          -9.905757,
          -5.9484525,
          -20.81908,
          -24.837715,
          -15.326743
        ],
        [
          -25.928864,
          -0.8156074,
          -1.1345127,
          3.1033938,
          -13.754038
        ],
        [
          6.0500183,
          -2.9961648,
          -0.023543358,
          -8.710762,
          3.0786088
        ],
        [
          1.7389157,
          1.9524732,
          5.6326885,
          -6.217885,
          0.5576497
        ]
      ],
      "shape": [
        8,
        5
      ]
    },
    {
      "rows": 2,
      "cols": 8,
      "data": [
        [
          -10.932466,
          17.544762,
          -8.150244,
          -4.2949305,
          -8.249631,
          -17.312668,
          -26.107975,
          8.901868
        ],
        [
          -9.915698,
          -22.554396,
          -15.955935,
          -6.079707,
          21.015896,
          -26.183266,
          -0.19847208,
          18.134514
        ]
      ],
      "shape": [
        2,
        8
      ]
    }
  ],
  "biases": [
    {
      "rows": 8,
      "cols": 1,
      "data": [
        [
          -14.359005
        ],
        [
          -14.864611
        ],
        [
          2.4391665
        ],
        [
          -6.8131657
        ],
        [
          -9.815937
        ],
        [
          -7.479417
        ],
        [
          18.504473
        ],
        [
          7.4204187
        ]
      ],
      "shape": [
        8,
        1
      ]
    },
    {
      "rows": 2,
      "cols": 1,
      "data": [
        [
          0.6635585
        ],
        [
          -5.6799417
        ]
      ],
      "shape": [
        2,
        1
      ]
    }
  ]
}
