{
  "layer": [
    5,
    8,
    2
  ],
  "weights": [
    {
      "rows": 8,
      "cols": 5,
      "data": [
        [
          31.702116,
          -5.7782645,
          -1.1737659,
          -11.7425785,
          21.406624
        ],
        [
          -7.553677,
          -7.5195103,
          -30.716953,
          -3.7413669,
          -33.28128
        ],
        [
          -8.991983,
          4.90185,
          17.65152,
          28.683807,
          3.419799
        ],
        [
          -31.774614,
          -7.4757533,
          -11.79459,
          6.479759,
          23.613861
        ],
        [
          12.446585,
          -31.243507,
          3.3444471,
          16.752151,
          -16.142456
        ],
        [
          15.484718,
          10.928381,
          39.581665,
          -7.102867,
          17.057344
        ],
        [
          -16.299908,
          -22.8735,
          -1.084517,
          -8.57873,
          -53.305447
        ],
        [
          1.7862167,
          -48.6489,
          -8.647828,
          39.966316,
          3.7422385
        ]
      ],
      "shape": [
        8,
        5
      ]
    },
    {
      "rows": 2,
      "cols": 8,
      "data": [
        [
          -2.591199,
          23.529295,
          0.58254766,
          -5.0001063,
          -37.36925,
          -19.30757,
          -23.022688,
          13.266239
        ],
        [
          -7.809842,
          31.018486,
          26.92286,
          0.6863431,
          -11.989891,
          32.17663,
          15.688854,
          -41.70417
        ]
      ],
      "shape": [
        2,
        8
      ]
    }
  ],
  "biases": [
    {
      "rows": 8,
      "cols": 1,
      "data": [
        [
          4.8153906
        ],
        [
          -3.5076575
        ],
        [
          -41.788284
        ],
        [
          -15.5633335
        ],
        [
          -10.431278
        ],
        [
          -7.4889994
        ],
        [
          23.012539
        ],
        [
          -2.4980154
        ]
      ],
      "shape": [
        8,
        1
      ]
    },
    {
      "rows": 2,
      "cols": 1,
      "data": [
        [
          -33.492863
        ],
        [
          -56.06268
        ]
      ],
      "shape": [
        2,
        1
      ]
    }
  ]
}
