{
  "layer": [
    5,
    8,
    2
  ],
  "weights": [
    {
      "rows": 8,
      "cols": 5,
      "data": [
        [
          25.943495,
          -12.183252,
          13.126429,
          -12.287428,
          22.832253
        ],
        [
          2.1944184,
          -2.2508492,
          -21.50329,
          -9.24007,
          -31.416111
        ],
        [
          -5.9084644,
          0.98832285,
          24.199049,
          21.489428,
          -1.3906052
        ],
        [
          -29.032892,
          -4.122641,
          -17.498104,
          -2.076762,
          9.253666
        ],
        [
          3.7947445,
          -22.343634,
          7.6806507,
          1.9766483,
          -5.4152417
        ],
        [
          8.131637,
          20.31043,
          38.911427,
          -11.003299,
          8.881032
        ],
        [
          -16.96336,
          -11.449351,
          -2.2627156,
          -9.379068,
          -45.44766
        ],
        [
          -3.6967788,
          -44.48072,
          -10.490899,
          33.184177,
          12.872263
        ]
      ],
      "shape": [
        8,
        5
      ]
    },
    {
      "rows": 2,
      "cols": 8,
      "data": [
        [
          3.9543443,
          23.847124,
          6.9359746,
          -5.4514403,
          -33.06409,
          -2.9747305,
          -38.983284,
          11.717777
        ],
        [
          -2.6315203,
          27.464228,
          21.744543,
          -10.278052,
          -0.39091158,
          26.427357,
          13.1098795,
          -18.203835
        ]
      ],
      "shape": [
        2,
        8
      ]
    }
  ],
  "biases": [
    {
      "rows": 8,
      "cols": 1,
      "data": [
        [
          18.696487
        ],
        [
          7.986076
        ],
        [
          -31.627796
        ],
        [
          -8.269285
        ],
        [
          -16.39661
        ],
        [
          -2.0946176
        ],
        [
          22.33986
        ],
        [
          -7.5639563
        ]
      ],
      "shape": [
        8,
        1
      ]
    },
    {
      "rows": 2,
      "cols": 1,
      "data": [
        [
          -19.157131
        ],
        [
          -31.26884
        ]
      ],
      "shape": [
        2,
        1
      ]
    }
  ]
}
