{
  "layer": [
    5,
    8,
    2
  ],
  "weights": [
    {
      "rows": 8,
      "cols": 5,
      "data": [
        [
          -0.94539404,
          -35.249443,
          5.4478674,
          39.777588,
          0.9837626
        ],
        [
          -10.323651,
          -8.253255,
          1.0282149,
          7.956132,
          -0.5134963
        ],
        [
          6.641989,
          6.150437,
          5.332637,
          1.2489333,
          15.538119
        ],
        [
          -2.59557,
          19.141953,
          9.118925,
          -21.264902,
          -12.9365
        ],
        [
          -2.6136885,
          -12.782731,
          10.25031,
          5.582574,
          5.203237
        ],
        [
          -3.4990032,
          27.896765,
          0.48130196,
          12.504807,
          10.642183
        ],
        [
          6.2221656,
          -1.2445796,
          -9.44417,
          6.3235474,
          2.3470612
        ],
        [
          -31.664822,
          9.982638,
          -13.187561,
          0.3814199,
          -9.434883
        ]
      ],
      "shape": [
        8,
        5
      ]
    },
    {
      "rows": 2,
      "cols": 8,
      "data": [
        [
          17.640415,
          0.8877986,
          -0.24614882,
          -22.878616,
          -13.669428,
          10.7543545,
          -17.793287,
          4.965419
        ],
        [
          -16.329885,
          18.269182,
          0.93787,
          13.267964,
          -2.0904443,
          7.4733152,
          10.108787,
          -5.9725895
        ]
      ],
      "shape": [
        2,
        8
      ]
    }
  ],
  "biases": [
    {
      "rows": 8,
      "cols": 1,
      "data": [
        [
          -9.762724
        ],
        [
          -15.809809
        ],
        [
          2.087305
        ],
        [
          -6.938573
        ],
        [
          2.2061033
        ],
        [
          9.98232
        ],
        [
          8.788569
        ],
        [
          -21.389223
        ]
      ],
      "shape": [
        8,
        1
      ]
    },
    {
      "rows": 2,
      "cols": 1,
      "data": [
        [
          5.2948303
        ],
        [
          -10.368662
        ]
      ],
      "shape": [
        2,
        1
      ]
    }
  ]
}
