{
  "layer": [
    5,
    8,
    2
  ],
  "weights": [
    {
      "rows": 8,
      "cols": 5,
      "data": [
        [
          19.851093,
          -12.085844,
          8.072039,
          -5.971867,
          6.749818
        ],
        [
          -12.020393,
          -6.732807,
          -18.517775,
          -8.173848,
          -13.053227
        ],
        [
          -20.422438,
          2.8134663,
          15.820265,
          4.557316,
          -5.555105
        ],
        [
          -29.258959,
          -8.160489,
          -26.376976,
          -1.5865278,
          20.769917
        ],
        [
          -3.68893,
          -15.786289,
          5.6348453,
          1.0327481,
          -5.35289
        ],
        [
          21.621426,
          8.302033,
          32.050617,
          -8.569008,
          -6.9031863
        ],
        [
          -18.227331,
          -10.300777,
          -8.27,
          4.0679927,
          -26.87074
        ],
        [
          0.78078973,
          -42.84393,
          -14.875057,
          28.17189,
          8.902499
        ]
      ],
      "shape": [
        8,
        5
      ]
    },
    {
      "rows": 2,
      "cols": 8,
      "data": [
        [
          -9.310138,
          25.37708,
          10.757898,
          -3.03485,
          -7.3835034,
          -3.158956,
          -32.954926,
          7.6869535
        ],
        [
          -25.786806,
          16.92242,
          3.7853749,
          2.2540371,
          4.3691783,
          21.766657,
          19.12963,
          -16.143124
        ]
      ],
      "shape": [
        2,
        8
      ]
    }
  ],
  "biases": [
    {
      "rows": 8,
      "cols": 1,
      "data": [
        [
          6.919657
        ],
        [
          -4.3667207
        ],
        [
          -19.851206
        ],
        [
          -1.5265245
        ],
        [
          -23.437807
        ],
        [
          4.9773464
        ],
        [
          21.521727
        ],
        [
          -0.41542196
        ]
      ],
      "shape": [
        8,
        1
      ]
    },
    {
      "rows": 2,
      "cols": 1,
      "data": [
        [
          -29.473167
        ],
        [
          -26.521482
        ]
      ],
      "shape": [
        2,
        1
      ]
    }
  ]
}
