{
  "layer": [
    5,
    8,
    2
  ],
  "weights": [
    {
      "rows": 8,
      "cols": 5,
      "data": [
        [
          30.212223,
          -1.5500865,
          5.5781918,
          -9.186329,
          17.785145
        ],
        [
          -2.5006518,
          -5.82903,
          -23.41457,
          -4.2322927,
          -28.996824
        ],
        [
          -3.4675965,
          9.748689,
          20.757132,
          29.930117,
          3.035094
        ],
        [
          -25.528677,
          -7.572293,
          -11.460295,
          1.290787,
          29.756226
        ],
        [
          17.391617,
          -27.659386,
          8.395558,
          5.5834675,
          -16.061893
        ],
        [
          7.557853,
          11.8244095,
          48.771294,
          -2.2228951,
          18.50994
        ],
        [
          -14.434748,
          -16.835028,
          -3.266874,
          -9.645454,
          -52.195118
        ],
        [
          -0.47680056,
          -52.30215,
          -2.0737367,
          48.96247,
          0.410744
        ]
      ],
      "shape": [
        8,
        5
      ]
    },
    {
      "rows": 2,
      "cols": 8,
      "data": [
        [
          3.6363463,
          19.539358,
          1.704972,
          -12.790287,
          -38.576664,
          -19.05184,
          -32.381393,
          7.4376717
        ],
        [
          -7.464987,
          27.367233,
          24.142723,
          -2.8637795,
          -15.810917,
          27.822762,
          15.088805,
          -42.616993
        ]
      ],
      "shape": [
        2,
        8
      ]
    }
  ],
  "biases": [
    {
      "rows": 8,
      "cols": 1,
      "data": [
        [
          1.2051358
        ],
        [
          -4.316112
        ],
        [
          -42.241974
        ],
        [
          -14.819798
        ],
        [
          -5.6985083
        ],
        [
          -4.4417844
        ],
        [
          32.421074
        ],
        [
          -4.4466105
        ]
      ],
      "shape": [
        8,
        1
      ]
    },
    {
      "rows": 2,
      "cols": 1,
      "data": [
        [
          -39.448174
        ],
        [
          -53.630875
        ]
      ],
      "shape": [
        2,
        1
      ]
    }
  ]
}
