{
  "layer": [
    5,
    8,
    2
  ],
  "weights": [
    {
      "rows": 8,
      "cols": 5,
      "data": [
        [
          -0.2466327,
          5.8031216,
          11.105513,
          23.0891,
          7.4768677
        ],
        [
          5.3508406,
          41.392017,
          9.857489,
          -33.978333,
          -15.304738
        ],
        [
          -10.416087,
          23.771072,
          7.471711,
          30.511488,
          13.0700655
        ],
        [
          14.612408,
          -2.1837215,
          2.0988946,
          -18.892218,
          -18.952291
        ],
        [
          1.6368402,
          -12.8665,
          3.3436604,
          1.9122881,
          12.201136
        ],
        [
          -7.227375,
          -15.102901,
          21.856136,
          33.884483,
          -4.8323884
        ],
        [
          4.35718,
          20.862364,
          -23.27469,
          -1.935794,
          10.576979
        ],
        [
          5.9457464,
          -1.0363033,
          -0.99401015,
          -0.8779344,
          13.663502
        ]
      ],
      "shape": [
        8,
        5
      ]
    },
    {
      "rows": 2,
      "cols": 8,
      "data": [
        [
          -4.4577756,
          -16.273611,
          13.303348,
          1.2001761,
          -4.5413384,
          19.966265,
          21.656046,
          -13.338006
        ],
        [
          -3.2143989,
          19.589489,
          -3.331177,
          10.45657,
          8.065172,
          -12.95373,
          -8.861805,
          -5.027668
        ]
      ],
      "shape": [
        2,
        8
      ]
    }
  ],
  "biases": [
    {
      "rows": 8,
      "cols": 1,
      "data": [
        [
          5.1625915
        ],
        [
          9.630846
        ],
        [
          -0.6024246
        ],
        [
          7.5341263
        ],
        [
          24.46015
        ],
        [
          -17.453634
        ],
        [
          16.546455
        ],
        [
          -11.888001
        ]
      ],
      "shape": [
        8,
        1
      ]
    },
    {
      "rows": 2,
      "cols": 1,
      "data": [
        [
          -17.815742
        ],
        [
          8.652494
        ]
      ],
      "shape": [
        2,
        1
      ]
    }
  ]
}
