{
  "layer": [
    5,
    8,
    2
  ],
  "weights": [
    {
      "rows": 8,
      "cols": 5,
      "data": [
        [
          -16.475275,
          16.558294,
          6.4848237,
          28.459393,
          -20.599533
        ],
        [
          -9.052627,
          58.49411,
          23.191984,
          -39.13731,
          -36.056995
        ],
        [
          -16.521643,
          1.5884442,
          -1.6675217,
          19.449966,
          14.325637
        ],
        [
          10.86697,
          10.085096,
          7.478986,
          -16.28506,
          -27.857655
        ],
        [
          24.260231,
          3.3626266,
          10.798376,
          5.854129,
          26.574694
        ],
        [
          1.7416075,
          -28.855034,
          18.042442,
          46.59265,
          1.6254197
        ],
        [
          -8.576061,
          -17.733025,
          -32.463337,
          17.075449,
          -8.220908
        ],
        [
          3.2250366,
          7.349334,
          -24.086815,
          -15.79141,
          3.432312
        ]
      ],
      "shape": [
        8,
        5
      ]
    },
    {
      "rows": 2,
      "cols": 8,
      "data": [
        [
          -28.1939,
          -5.1966763,
          20.317442,
          14.099946,
          -3.7301478,
          32.531326,
          18.373493,
          -14.57521
        ],
        [
          -21.947147,
          31.887772,
          12.689872,
          10.614742,
          16.25582,
          -30.675354,
          -1.8415761,
          -15.664947
        ]
      ],
      "shape": [
        2,
        8
      ]
    }
  ],
  "biases": [
    {
      "rows": 8,
      "cols": 1,
      "data": [
        [
          18.428616
        ],
        [
          -5.452293
        ],
        [
          -11.041449
        ],
        [
          14.9854355
        ],
        [
          13.552918
        ],
        [
          -21.7848
        ],
        [
          0.22994596
        ],
        [
          5.7497945
        ]
      ],
      "shape": [
        8,
        1
      ]
    },
    {
      "rows": 2,
      "cols": 1,
      "data": [
        [
          -4.233957
        ],
        [
          21.022062
        ]
      ],
      "shape": [
        2,
        1
      ]
    }
  ]
}
