{
  "layer": [
    5,
    8,
    2
  ],
  "weights": [
    {
      "rows": 8,
      "cols": 5,
      "data": [
        [
          3.6462753,
          -32.649918,
          2.104208,
          34.3527,
          0.8637239
        ],
        [
          -9.559136,
          -4.421688,
          4.6458993,
          3.8225493,
          -4.812757
        ],
        [
          9.318385,
          6.4201093,
          8.488312,
          -0.3620752,
          11.806288
        ],
        [
          -0.71895003,
          12.2281475,
          9.822256,
          -17.035717,
          -12.683548
        ],
        [
          -0.646322,
          -12.33195,
          11.968262,
          4.742718,
          3.1829784
        ],
        [
          2.192577,
          22.000246,
          0.38604426,
          8.701766,
          16.953354
        ],
        [
          6.5057516,
          4.549823,
          -4.43026,
          2.4015684,
          2.0194786
        ],
        [
          -26.357994,
          6.8181806,
          -8.648089,
          -3.290773,
          -5.4679265
        ]
      ],
      "shape": [
        8,
        5
      ]
    },
    {
      "rows": 2,
      "cols": 8,
      "data": [
        [
          18.413574,
          -4.882432,
          11.426767,
          -20.94279,
          -6.8060985,
          14.2668705,
          -14.066149,
          1.2711008
        ],
        [
          -16.477821,
          24.20808,
          6.733877,
          14.327025,
          -3.2682378,
          9.104299,
          11.966029,
          -9.403946
        ]
      ],
      "shape": [
        2,
        8
      ]
    }
  ],
  "biases": [
    {
      "rows": 8,
      "cols": 1,
      "data": [
        [
          -9.456703
        ],
        [
          -13.218818
        ],
        [
          1.2886046
        ],
        [
          -1.6774962
        ],
        [
          1.9056854
        ],
        [
          10.197218
        ],
        [
          7.8074956
        ],
        [
          -17.594908
        ]
      ],
      "shape": [
        8,
        1
      ]
    },
    {
      "rows": 2,
      "cols": 1,
      "data": [
        [
          5.31235
        ],
        [
          -10.118528
        ]
      ],
      "shape": [
        2,
        1
      ]
    }
  ]
}
