{
  "layer": [
    5,
    8,
    2
  ],
  "weights": [
    {
      "rows": 8,
      "cols": 5,
      "data": [
        [
          3.824763,
          -32.129158,
          4.8120756,
          35.985874,
          2.8399487
        ],
        [
          -8.478345,
          -6.857224,
          3.6742494,
          3.6055956,
          -3.185302
        ],
        [
          10.65583,
          4.2330565,
          7.5852976,
          -0.38768053,
          11.833632
        ],
        [
          -0.99422926,
          19.282227,
          10.889755,
          -21.30519,
          -8.650404
        ],
        [
          1.5538826,
          -11.015118,
          11.585019,
          2.0080583,
          4.331932
        ],
        [
          4.3340063,
          17.323826,
          -6.1850533,
          8.782917,
          15.279985
        ],
        [
          5.7602654,
          1.8802273,
          -1.8544862,
          2.4351237,
          3.021999
        ],
        [
          -22.903906,
          4.3381386,
          -8.927181,
          -8.566708,
          -2.552741
        ]
      ],
      "shape": [
        8,
        5
      ]
    },
    {
      "rows": 2,
      "cols": 8,
      "data": [
        [
          18.671707,
          -6.0787835,
          7.1417236,
          -20.524502,
          -5.7748556,
          9.581555,
          -8.984356,
          1.1539146
        ],
        [
          -18.651098,
          19.599264,
          7.421956,
          14.368935,
          -4.4104576,
          8.695415,
          14.683178,
          -9.766935
        ]
      ],
      "shape": [
        2,
        8
      ]
    }
  ],
  "biases": [
    {
      "rows": 8,
      "cols": 1,
      "data": [
        [
          -12.623934
        ],
        [
          -7.1534595
        ],
        [
          -2.4301956
        ],
        [
          -2.2279854
        ],
        [
          5.032845
        ],
        [
          12.988892
        ],
        [
          8.062451
        ],
        [
          -9.316822
        ]
      ],
      "shape": [
        8,
        1
      ]
    },
    {
      "rows": 2,
      "cols": 1,
      "data": [
        [
          5.558287
        ],
        [
          -9.047686
        ]
      ],
      "shape": [
        2,
        1
      ]
    }
  ]
}
