{
  "layer": [
    5,
    8,
    2
  ],
  "weights": [
    {
      "rows": 8,
      "cols": 5,
      "data": [
        [
          -14.895369,
          16.626263,
          8.859768,
          32.78167,
          -20.378202
        ],
        [
          -5.832691,
          54.635105,
          21.054953,
          -38.324757,
          -34.91934
        ],
        [
          -15.719293,
          1.549098,
          -2.5400844,
          22.630161,
          13.662807
        ],
        [
          8.085688,
          6.530184,
          4.854575,
          -14.718612,
          -26.72309
        ],
        [
          26.219872,
          10.188247,
          9.564549,
          0.10334754,
          27.985792
        ],
        [
          -4.3201036,
          -27.580502,
          18.445755,
          46.119328,
          0.6156142
        ],
        [
          -8.268842,
          -17.01127,
          -28.300886,
          11.772655,
          -10.571808
        ],
        [
          2.0593688,
          10.800211,
          -25.910284,
          -12.58376,
          2.230204
        ]
      ],
      "shape": [
        8,
        5
      ]
    },
    {
      "rows": 2,
      "cols": 8,
      "data": [
        [
          -35.057125,
          0.2359488,
          20.333593,
          19.163612,
          -7.771224,
          31.105703,
          19.131193,
          -8.876736
        ],
        [
          -27.890617,
          28.507668,
          13.378424,
          14.523187,
          9.283511,
          -26.021534,
          7.380317,
          -15.828303
        ]
      ],
      "shape": [
        2,
        8
      ]
    }
  ],
  "biases": [
    {
      "rows": 8,
      "cols": 1,
      "data": [
        [
          17.999697
        ],
        [
          -7.1905823
        ],
        [
          -7.753716
        ],
        [
          15.501002
        ],
        [
          15.918531
        ],
        [
          -20.299446
        ],
        [
          1.4798167
        ],
        [
          2.705634
        ]
      ],
      "shape": [
        8,
        1
      ]
    },
    {
      "rows": 2,
      "cols": 1,
      "data": [
        [
          -6.1490326
        ],
        [
          20.178799
        ]
      ],
      "shape": [
        2,
        1
      ]
    }
  ]
}
