{
  "layer": [
    5,
    8,
    2
  ],
  "weights": [
    {
      "rows": 8,
      "cols": 5,
      "data": [
        [
          -9.048867,
          4.9159474,
          -10.22742,
          -5.2207193,
          -9.675594
        ],
        [
          -4.2851872,
          -14.724728,
          11.190458,
          25.261574,
          3.7097046
        ],
        [
          -10.666639,
          -16.68675,
          22.639881,
          6.8187714,
          -1.2800022
        ],
        [
          -13.927613,
          2.2933457,
          -21.570433,
          -5.620285,
          6.03656
        ],
        [
          -3.9641862,
          1.4388293,
          -17.266106,
          -14.536091,
          -16.300596
        ],
        [
          -27.963013,
          -3.7311964,
          -6.0968103,
          5.950518,
          -9.010738
        ],
        [
          4.397963,
          -3.3381553,
          -6.530711,
          -2.3805683,
          0.9756222
        ],
        [
          -0.40204877,
          -0.9178594,
          0.8082801,
          -11.566768,
          3.9062934
        ]
      ],
      "shape": [
        8,
        5
      ]
    },
    {
      "rows": 2,
      "cols": 8,
      "data": [
        [
          -11.807767,
          22.994778,
          -4.847761,
          3.4578848,
          -7.6719894,
          -12.049968,
          -20.092,
          11.335775
        ],
        [
          -13.014917,
          -21.875563,
          -5.608718,
          -8.151753,
          16.230442,
          -24.9351,
          -6.549335,
          16.880959
        ]
      ],
      "shape": [
        2,
        8
      ]
    }
  ],
  "biases": [
    {
      "rows": 8,
      "cols": 1,
      "data": [
        [
          -15.674745
        ],
        [
          -14.557823
        ],
        [
          3.899175
        ],
        [
          -4.250147
        ],
        [
          -16.093044
        ],
        [
          -2.4878898
        ],
        [
          15.34544
        ],
        [
          6.843999
        ]
      ],
      "shape": [
        8,
        1
      ]
    },
    {
      "rows": 2,
      "cols": 1,
      "data": [
        [
          -5.85526
        ],
        [
          3.2088442
        ]
      ],
      "shape": [
        2,
        1
      ]
    }
  ]
}
