{
  "layer": [
    5,
    8,
    2
  ],
  "weights": [
    {
      "rows": 8,
      "cols": 5,
      "data": [
        [
          -17.67897,
          17.744894,
          5.670145,
          30.15988,
          -18.022043
        ],
        [
          -8.411764,
          55.748264,
          24.80405,
          -38.132656,
          -38.892838
        ],
        [
          -14.056965,
          1.5830485,
          -4.1113687,
          19.542765,
          13.822409
        ],
        [
          8.52615,
          11.958746,
          2.7924888,
          -16.646103,
          -26.040937
        ],
        [
          25.37478,
          1.0454944,
          10.544868,
          6.2127585,
          26.526035
        ],
        [
          1.5892868,
          -27.913105,
          17.748951,
          45.9419,
          0.25753093
        ],
        [
          -8.562221,
          -18.235691,
          -34.624912,
          20.873976,
          -8.10604
        ],
        [
          4.7827826,
          7.7941475,
          -23.585882,
          -16.833061,
          5.1671567
        ]
      ],
      "shape": [
        8,
        5
      ]
    },
    {
      "rows": 2,
      "cols": 8,
      "data": [
        [
          -31.091293,
          -11.339316,
          21.245647,
          14.696388,
          -2.2974262,
          36.7401,
          15.689901,
          -8.554182
        ],
        [
          -24.097582,
          31.627031,
          8.141057,
          12.319485,
          11.506308,
          -29.41505,
          -1.5554731,
          -14.541871
        ]
      ],
      "shape": [
        2,
        8
      ]
    }
  ],
  "biases": [
    {
      "rows": 8,
      "cols": 1,
      "data": [
        [
          16.608345
        ],
        [
          -8.155611
        ],
        [
          -12.178247
        ],
        [
          14.904965
        ],
        [
          14.25943
        ],
        [
          -21.82733
        ],
        [
          -0.40916818
        ],
        [
          8.0967865
        ]
      ],
      "shape": [
        8,
        1
      ]
    },
    {
      "rows": 2,
      "cols": 1,
      "data": [
        [
          -5.3907495
        ],
        [
          15.107838
        ]
      ],
      "shape": [
        2,
        1
      ]
    }
  ]
}
