{
  "layer": [
    5,
    8,
    2
  ],
  "weights": [
    {
      "rows": 8,
      "cols": 5,
      "data": [
        [
          -10.442022,
          13.143008,
          4.3967533,
          30.63212,
          -21.058098
        ],
        [
          -7.1773252,
          53.113205,
          17.187202,
          -27.937544,
          -39.293823
        ],
        [
          -16.100128,
          1.1440587,
          -0.2920475,
          24.341091,
          7.305401
        ],
        [
          5.2716494,
          14.230081,
          1.4158678,
          -26.209602,
          -22.858948
        ],
        [
          26.552631,
          -0.23235554,
          14.352773,
          5.446182,
          19.492306
        ],
        [
          3.6985438,
          -30.152834,
          15.0861435,
          43.773083,
          4.903489
        ],
        [
          -7.618639,
          -16.50782,
          -31.561075,
          21.073685,
          -7.6240253
        ],
        [
          4.0528755,
          3.6037564,
          -23.5696,
          -11.509052,
          -1.139223
        ]
      ],
      "shape": [
        8,
        5
      ]
    },
    {
      "rows": 2,
      "cols": 8,
      "data": [
        [
          -21.694553,
          -2.6258066,
          21.943823,
          14.811131,
          -3.5549455,
          33.52328,
          14.224814,
          -7.0848866
        ],
        [
          -18.98279,
          28.08828,
          7.4455986,
          13.671695,
          6.840288,
          -25.728992,
          3.6969962,
          -21.297659
        ]
      ],
      "shape": [
        2,
        8
      ]
    }
  ],
  "biases": [
    {
      "rows": 8,
      "cols": 1,
      "data": [
        [
          17.574583
        ],
        [
          -5.1830673
        ],
        [
          -9.20315
        ],
        [
          13.931432
        ],
        [
          18.448555
        ],
        [
          -23.884388
        ],
        [
          1.2840296
        ],
        [
          8.863001
        ]
      ],
      "shape": [
        8,
        1
      ]
    },
    {
      "rows": 2,
      "cols": 1,
      "data": [
        [
          -0.17057335
        ],
        [
          18.26746
        ]
      ],
      "shape": [
        2,
        1
      ]
    }
  ]
}
