{
  "layer": [
    5,
    8,
    2
  ],
  "weights": [
    {
      "rows": 8,
      "cols": 5,
      "data": [
        [
          -3.125623,
          11.752893,
          -6.54965,
          -7.9794493,
          -13.726798
        ],
        [
          -0.71977377,
          -39.460045,
          2.5539231,
          41.97193,
          2.186975
        ],
        [
          3.2992446,
          5.0796943,
          23.166737,
          -6.9261103,
          -19.76669
        ],
        [
          -55.877014,
          -3.9148626,
          -3.0810413,
          6.5021133,
          23.512835
        ],
        [
          -10.407553,
          -4.1432185,
          -11.929144,
          -5.090827,
          -24.509212
        ],
        [
          7.4257636,
          -12.883259,
          18.393202,
          -18.946323,
          21.950914
        ],
        [
          23.701036,
          20.857128,
          2.9305944,
          -7.623675,
          -1.4221213
        ],
        [
          -1.4848844,
          13.506474,
          -6.456472,
          4.8183928,
          -29.5075
        ]
      ],
      "shape": [
        8,
        5
      ]
    },
    {
      "rows": 2,
      "cols": 8,
      "data": [
        [
          -9.556492,
          27.12824,
          -19.33799,
          -4.397847,
          12.72529,
          -25.190847,
          -12.348655,
          9.124026
        ],
        [
          32.603752,
          -65.56418,
          -28.941446,
          1.461306,
          14.449719,
          1.1194808,
          9.692851,
          1.9679886
        ]
      ],
      "shape": [
        2,
        8
      ]
    }
  ],
  "biases": [
    {
      "rows": 8,
      "cols": 1,
      "data": [
        [
          -1.8650978
        ],
        [
          -8.642228
        ],
        [
          -1.39295
        ],
        [
          1.1947644
        ],
        [
          20.830393
        ],
        [
          7.559494
        ],
        [
          32.2462
        ],
        [
          5.3339367
        ]
      ],
      "shape": [
        8,
        1
      ]
    },
    {
      "rows": 2,
      "cols": 1,
      "data": [
        [
          -9.870388
        ],
        [
          5.17333
        ]
      ],
      "shape": [
        2,
        1
      ]
    }
  ]
}
