{
  "layer": [
    5,
    8,
    2
  ],
  "weights": [
    {
      "rows": 8,
      "cols": 5,
      "data": [
        [
          0.19808398,
          8.691897,
          -8.780026,
          -6.932573,
          -16.874939
        ],
        [
          0.8990494,
          -42.30512,
          0.21011388,
          42.77807,
          1.7341324
        ],
        [
          0.35379457,
          8.164297,
          18.670418,
          -1.6900764,
          -21.292795
        ],
        [
          -53.165882,
          1.7113895,
          -2.8687294,
          7.620579,
          19.623207
        ],
        [
          -6.119105,
          -7.2646847,
          -12.609377,
          -3.1885357,
          -25.358479
        ],
        [
          4.2868257,
          -11.98476,
          19.334352,
          -21.079018,
          24.930304
        ],
        [
          24.859886,
          23.247324,
          5.435961,
          -1.7853694,
          5.029619
        ],
        [
          -5.929082,
          10.219641,
          -3.8738728,
          3.0402372,
          -27.7581
        ]
      ],
      "shape": [
        8,
        5
      ]
    },
    {
      "rows": 2,
      "cols": 8,
      "data": [
        [
          -12.239123,
          24.600304,
          -21.21434,
          -3.622034,
          16.185606,
          -27.748453,
          -9.017069,
          7.5127773
        ],
        [
          33.895363,
          -61.587498,
          -32.215225,
          -5.3427277,
          18.267262,
          2.6482477,
          9.556886,
          -3.9289062
        ]
      ],
      "shape": [
        2,
        8
      ]
    }
  ],
  "biases": [
    {
      "rows": 8,
      "cols": 1,
      "data": [
        [
          -2.5600493
        ],
        [
          -7.0656557
        ],
        [
          -2.1033862
        ],
        [
          -3.1394162
        ],
        [
          19.696331
        ],
        [
          7.8266544
        ],
        [
          29.364363
        ],
        [
          7.4358234
        ]
      ],
      "shape": [
        8,
        1
      ]
    },
    {
      "rows": 2,
      "cols": 1,
      "data": [
        [
          -9.202864
        ],
        [
          5.882802
        ]
      ],
      "shape": [
        2,
        1
      ]
    }
  ]
}
