{
  "layer": [
    5,
    8,
    2
  ],
  "weights": [
    {
      "rows": 8,
      "cols": 5,
      "data": [
        [
          -1.1680329,
          -31.945402,
          7.3123126,
          39.99671,
          1.0214796
        ],
        [
          -10.184069,
          -15.8891735,
          -4.053381,
          12.413658,
          0.85329485
        ],
        [
          3.7583733,
          7.559896,
          5.2290244,
          5.9306087,
          16.093287
        ],
        [
          -2.9477699,
          22.37345,
          6.7235327,
          -20.263416,
          -11.484293
        ],
        [
          -2.2204323,
          -9.285645,
          8.680966,
          4.49569,
          8.385778
        ],
        [
          -4.0757303,
          25.882254,
          0.7924384,
          6.8777976,
          15.270672
        ],
        [
          6.518894,
          -0.76985884,
          -15.007261,
          10.751024,
          -0.49784413
        ],
        [
          -29.169565,
          9.52224,
          -13.361723,
          1.6377321,
          -3.945397
        ]
      ],
      "shape": [
        8,
        5
      ]
    },
    {
      "rows": 2,
      "cols": 8,
      "data": [
        [
          20.610765,
          5.4300027,
          3.0338426,
          -25.636784,
          -10.311342,
          13.348005,
          -18.461226,
          4.850732
        ],
        [
          -20.045473,
          24.339846,
          1.7667876,
          11.533442,
          -0.024934411,
          4.7703533,
          11.178442,
          -4.0863743
        ]
      ],
      "shape": [
        2,
        8
      ]
    }
  ],
  "biases": [
    {
      "rows": 8,
      "cols": 1,
      "data": [
        [
          -12.879054
        ],
        [
          -13.078207
        ],
        [
          -4.597586
        ],
        [
          -11.361657
        ],
        [
          -1.6214437
        ],
        [
          9.948583
        ],
        [
          12.445458
        ],
        [
          -18.147875
        ]
      ],
      "shape": [
        8,
        1
      ]
    },
    {
      "rows": 2,
      "cols": 1,
      "data": [
        [
          5.516787
        ],
        [
          -7.2388735
        ]
      ],
      "shape": [
        2,
        1
      ]
    }
  ]
}
