{
  "layer": [
    5,
    8,
    2
  ],
  "weights": [
    {
      "rows": 8,
      "cols": 5,
      "data": [
        [
          -14.575488,
          20.161758,
          -1.2118081,
          -1.7480137,
          -13.944448
        ],
        [
          -3.9215393,
          -25.138393,
          7.9331803,
          33.37413,
          0.37583238
        ],
        [
          4.4724536,
          -4.432269,
          19.17407,
          -7.6018405,
          -11.255195
        ],
        [
          -48.314224,
          -6.869617,
          0.9853133,
          3.519281,
          29.64227
        ],
        [
          -20.673687,
          -0.5168477,
          -4.0785484,
          -22.179443,
          -26.934711
        ],
        [
          -10.195476,
          -0.53501844,
          16.952717,
          -4.5421996,
          13.913215
        ],
        [
          17.173117,
          9.6816435,
          7.5380335,
          -12.244334,
          12.216988
        ],
        [
          -2.1073914,
          15.00771,
          -4.595579,
          -2.7460327,
          -20.8125
        ]
      ],
      "shape": [
        8,
        5
      ]
    },
    {
      "rows": 2,
      "cols": 8,
      "data": [
        [
          -6.974804,
          19.337564,
          -20.358868,
          -21.484169,
          -2.7521248,
          -8.672048,
          1.069864,
          19.058224
        ],
        [
          24.975658,
          -53.069283,
          -22.299866,
          -4.1695013,
          33.93596,
          -1.6393819,
          6.093544,
          18.839827
        ]
      ],
      "shape": [
        2,
        8
      ]
    }
  ],
  "biases": [
    {
      "rows": 8,
      "cols": 1,
      "data": [
        [
          -11.64249
        ],
        [
          -10.24093
        ],
        [
          5.3567443
        ],
        [
          2.4668665
        ],
        [
          22.038124
        ],
        [
          17.425901
        ],
        [
          23.985691
        ],
        [
          21.340382
        ]
      ],
      "shape": [
        8,
        1
      ]
    },
    {
      "rows": 2,
      "cols": 1,
      "data": [
        [
          -7.6480007
        ],
        [
          13.3239155
        ]
      ],
      "shape": [
        2,
        1
      ]
    }
  ]
}
